id,dim_0,dim_1,dim_2,dim_3,dim_4,dim_5,dim_6,dim_7,dim_8,dim_9,dim_10,dim_11,dim_12,dim_13,dim_14,dim_15,dim_16,dim_17,dim_18,dim_19,dim_20,dim_21,dim_22,dim_23,dim_24,dim_25,dim_26,dim_27,dim_28,dim_29,dim_30,dim_31,dim_32,dim_33,dim_34,dim_35,dim_36,dim_37,dim_38,dim_39,dim_40,dim_41,dim_42,dim_43,dim_44,dim_45,dim_46,dim_47,dim_48,dim_49,dim_50,dim_51,dim_52,dim_53,dim_54,dim_55,dim_56,dim_57,dim_58,dim_59,dim_60,dim_61,dim_62,dim_63,dim_64,dim_65,dim_66,dim_67,dim_68,dim_69,dim_70,dim_71,dim_72,dim_73,dim_74,dim_75,dim_76,dim_77,dim_78,dim_79,dim_80,dim_81,dim_82,dim_83,dim_84,dim_85,dim_86,dim_87,dim_88,dim_89,dim_90,dim_91,dim_92,dim_93,dim_94,dim_95,dim_96,dim_97,dim_98,dim_99,dim_100,dim_101,dim_102,dim_103,dim_104,dim_105,dim_106,dim_107,dim_108,dim_109,dim_110,dim_111,dim_112,dim_113,dim_114,dim_115,dim_116,dim_117,dim_118,dim_119,dim_120,dim_121,dim_122,dim_123,dim_124,dim_125,dim_126,dim_127,dim_128,dim_129,dim_130,dim_131,dim_132,dim_133,dim_134,dim_135,dim_136,dim_137,dim_138,dim_139,dim_140,dim_141,dim_142,dim_143,dim_144,dim_145,dim_146,dim_147,dim_148,dim_149,dim_150,dim_151,dim_152,dim_153,dim_154,dim_155,dim_156,dim_157,dim_158,dim_159,dim_160,dim_161,dim_162,dim_163,dim_164,dim_165,dim_166,dim_167,dim_168,dim_169,dim_170,dim_171,dim_172,dim_173,dim_174,dim_175,dim_176,dim_177,dim_178,dim_179,dim_180,dim_181,dim_182,dim_183,dim_184,dim_185,dim_186,dim_187,dim_188,dim_189,dim_190,dim_191,dim_192,dim_193,dim_194,dim_195,dim_196,dim_197,dim_198,dim_199,dim_200,dim_201,dim_202,dim_203,dim_204,dim_205,dim_206,dim_207,dim_208,dim_209,dim_210,dim_211,dim_212,dim_213,dim_214,dim_215,dim_216,dim_217,dim_218,dim_219,dim_220,dim_221,dim_222,dim_223,dim_224,dim_225,dim_226,dim_227,dim_228,dim_229,dim_230,dim_231,dim_232,dim_233,dim_234,dim_235,dim_236,dim_237,dim_238,dim_239,dim_240,dim_241,dim_242,dim_243,dim_244,dim_245,dim_246,dim_247,dim_248,dim_249,dim_250,dim_251,dim_252,dim_253,dim_254,dim_255,dim_256,dim_257,dim_258,dim_259,dim_260,dim_261,dim_262,dim_263,dim_264,dim_265,dim_266,dim_267,dim_268,dim_269,dim_270,dim_271,dim_272,dim_273,dim_274,dim_275,dim_276,dim_277,dim_278,dim_279,dim_280,dim_281,dim_282,dim_283,dim_284,dim_285,dim_286,dim_287,dim_288,dim_289,dim_290,dim_291,dim_292,dim_293,dim_294,dim_295,dim_296,dim_297,dim_298,dim_299,dim_300,dim_301,dim_302,dim_303,dim_304,dim_305,dim_306,dim_307,dim_308,dim_309,dim_310,dim_311,dim_312,dim_313,dim_314,dim_315,dim_316,dim_317,dim_318,dim_319,dim_320,dim_321,dim_322,dim_323,dim_324,dim_325,dim_326,dim_327,dim_328,dim_329,dim_330,dim_331,dim_332,dim_333,dim_334,dim_335,dim_336,dim_337,dim_338,dim_339,dim_340,dim_341,dim_342,dim_343,dim_344,dim_345,dim_346,dim_347,dim_348,dim_349,dim_350,dim_351,dim_352,dim_353,dim_354,dim_355,dim_356,dim_357,dim_358,dim_359,dim_360,dim_361,dim_362,dim_363,dim_364,dim_365,dim_366,dim_367,dim_368,dim_369,dim_370,dim_371,dim_372,dim_373,dim_374,dim_375,dim_376,dim_377,dim_378,dim_379,dim_380,dim_381,dim_382,dim_383,dim_384,dim_385,dim_386,dim_387,dim_388,dim_389,dim_390,dim_391,dim_392,dim_393,dim_394,dim_395,dim_396,dim_397,dim_398,dim_399,dim_400,dim_401,dim_402,dim_403,dim_404,dim_405,dim_406,dim_407,dim_408,dim_409,dim_410,dim_411,dim_412,dim_413,dim_414,dim_415,dim_416,dim_417,dim_418,dim_419,dim_420,dim_421,dim_422,dim_423,dim_424,dim_425,dim_426,dim_427,dim_428,dim_429,dim_430,dim_431,dim_432,dim_433,dim_434,dim_435,dim_436,dim_437,dim_438,dim_439,dim_440,dim_441,dim_442,dim_443,dim_444,dim_445,dim_446,dim_447,dim_448,dim_449,dim_450,dim_451,dim_452,dim_453,dim_454,dim_455,dim_456,dim_457,dim_458,dim_459,dim_460,dim_461,dim_462,dim_463,dim_464,dim_465,dim_466,dim_467,dim_468,dim_469,dim_470,dim_471,dim_472,dim_473,dim_474,dim_475,dim_476,dim_477,dim_478,dim_479,dim_480,dim_481,dim_482,dim_483,dim_484,dim_485,dim_486,dim_487,dim_488,dim_489,dim_490,dim_491,dim_492,dim_493,dim_494,dim_495,dim_496,dim_497,dim_498,dim_499,dim_500,dim_501,dim_502,dim_503,dim_504,dim_505,dim_506,dim_507,dim_508,dim_509,dim_510,dim_511,dim_512,dim_513,dim_514,dim_515,dim_516,dim_517,dim_518,dim_519,dim_520,dim_521,dim_522,dim_523,dim_524,dim_525,dim_526,dim_527,dim_528,dim_529,dim_530,dim_531,dim_532,dim_533,dim_534,dim_535,dim_536,dim_537,dim_538,dim_539,dim_540,dim_541,dim_542,dim_543,dim_544,dim_545,dim_546,dim_547,dim_548,dim_549,dim_550,dim_551,dim_552,dim_553,dim_554,dim_555,dim_556,dim_557,dim_558,dim_559,dim_560,dim_561,dim_562,dim_563,dim_564,dim_565,dim_566,dim_567,dim_568,dim_569,dim_570,dim_571,dim_572,dim_573,dim_574,dim_575,dim_576,dim_577,dim_578,dim_579,dim_580,dim_581,dim_582,dim_583,dim_584,dim_585,dim_586,dim_587,dim_588,dim_589,dim_590,dim_591,dim_592,dim_593,dim_594,dim_595,dim_596,dim_597,dim_598,dim_599,dim_600,dim_601,dim_602,dim_603,dim_604,dim_605,dim_606,dim_607,dim_608,dim_609,dim_610,dim_611,dim_612,dim_613,dim_614,dim_615,dim_616,dim_617,dim_618,dim_619,dim_620,dim_621,dim_622,dim_623,dim_624,dim_625,dim_626,dim_627,dim_628,dim_629,dim_630,dim_631,dim_632,dim_633,dim_634,dim_635,dim_636,dim_637,dim_638,dim_639,dim_640,dim_641,dim_642,dim_643,dim_644,dim_645,dim_646,dim_647,dim_648,dim_649,dim_650,dim_651,dim_652,dim_653,dim_654,dim_655,dim_656,dim_657,dim_658,dim_659,dim_660,dim_661,dim_662,dim_663,dim_664,dim_665,dim_666,dim_667,dim_668,dim_669,dim_670,dim_671,dim_672,dim_673,dim_674,dim_675,dim_676,dim_677,dim_678,dim_679,dim_680,dim_681,dim_682,dim_683,dim_684,dim_685,dim_686,dim_687,dim_688,dim_689,dim_690,dim_691,dim_692,dim_693,dim_694,dim_695,dim_696,dim_697,dim_698,dim_699,dim_700,dim_701,dim_702,dim_703,dim_704,dim_705,dim_706,dim_707,dim_708,dim_709,dim_710,dim_711,dim_712,dim_713,dim_714,dim_715,dim_716,dim_717,dim_718,dim_719,dim_720,dim_721,dim_722,dim_723,dim_724,dim_725,dim_726,dim_727,dim_728,dim_729,dim_730,dim_731,dim_732,dim_733,dim_734,dim_735,dim_736,dim_737,dim_738,dim_739,dim_740,dim_741,dim_742,dim_743,dim_744,dim_745,dim_746,dim_747,dim_748,dim_749,dim_750,dim_751,dim_752,dim_753,dim_754,dim_755,dim_756,dim_757,dim_758,dim_759,dim_760,dim_761,dim_762,dim_763,dim_764,dim_765,dim_766,dim_767,dim_768,dim_769,dim_770,dim_771,dim_772,dim_773,dim_774,dim_775,dim_776,dim_777,dim_778,dim_779,dim_780,dim_781,dim_782,dim_783,dim_784,dim_785,dim_786,dim_787,dim_788,dim_789,dim_790,dim_791,dim_792,dim_793,dim_794,dim_795,dim_796,dim_797,dim_798,dim_799,dim_800,dim_801,dim_802,dim_803,dim_804,dim_805,dim_806,dim_807,dim_808,dim_809,dim_810,dim_811,dim_812,dim_813,dim_814,dim_815,dim_816,dim_817,dim_818,dim_819,dim_820,dim_821,dim_822,dim_823,dim_824,dim_825,dim_826,dim_827,dim_828,dim_829,dim_830,dim_831,dim_832,dim_833,dim_834,dim_835,dim_836,dim_837,dim_838,dim_839,dim_840,dim_841,dim_842,dim_843,dim_844,dim_845,dim_846,dim_847,dim_848,dim_849,dim_850,dim_851,dim_852,dim_853,dim_854,dim_855,dim_856,dim_857,dim_858,dim_859,dim_860,dim_861,dim_862,dim_863,dim_864,dim_865,dim_866,dim_867,dim_868,dim_869,dim_870,dim_871,dim_872,dim_873,dim_874,dim_875,dim_876,dim_877,dim_878,dim_879,dim_880,dim_881,dim_882,dim_883,dim_884,dim_885,dim_886,dim_887,dim_888,dim_889,dim_890,dim_891,dim_892,dim_893,dim_894,dim_895,dim_896,dim_897,dim_898,dim_899,dim_900,dim_901,dim_902,dim_903,dim_904,dim_905,dim_906,dim_907,dim_908,dim_909,dim_910,dim_911,dim_912,dim_913,dim_914,dim_915,dim_916,dim_917,dim_918,dim_919,dim_920,dim_921,dim_922,dim_923,dim_924,dim_925,dim_926,dim_927,dim_928,dim_929,dim_930,dim_931,dim_932,dim_933,dim_934,dim_935,dim_936,dim_937,dim_938,dim_939,dim_940,dim_941,dim_942,dim_943,dim_944,dim_945,dim_946,dim_947,dim_948,dim_949,dim_950,dim_951,dim_952,dim_953,dim_954,dim_955,dim_956,dim_957,dim_958,dim_959,dim_960,dim_961,dim_962,dim_963,dim_964,dim_965,dim_966,dim_967,dim_968,dim_969,dim_970,dim_971,dim_972,dim_973,dim_974,dim_975,dim_976,dim_977,dim_978,dim_979,dim_980,dim_981,dim_982,dim_983,dim_984,dim_985,dim_986,dim_987,dim_988,dim_989,dim_990,dim_991,dim_992,dim_993,dim_994,dim_995,dim_996,dim_997,dim_998,dim_999,dim_1000,dim_1001,dim_1002,dim_1003,dim_1004,dim_1005,dim_1006,dim_1007,dim_1008,dim_1009,dim_1010,dim_1011,dim_1012,dim_1013,dim_1014,dim_1015,dim_1016,dim_1017,dim_1018,dim_1019,dim_1020,dim_1021,dim_1022,dim_1023
DNA_V3_bodysite,0.039056152,-0.069873735,0.044851415,0.011280817,-0.09646526,-0.03154229,-0.19450809,-0.03636042,-0.040341087,0.026805004,0.0007752191,0.06414279,0.051323984,0.14638814,-0.015036409,0.16488175,-0.3153246,0.09913591,0.098726586,-0.72217345,0.019761914,-0.06360883,-0.094039,-0.021853272,-0.012212587,0.08036059,-0.024723189,-0.07828007,-0.08777422,-0.015046133,-0.072427906,-0.12798452,0.18597385,0.040123597,1.8309946e-05,-0.012705372,-0.23352483,-0.07364914,-0.03809838,-0.12607048,0.10542186,0.10646431,0.054507297,0.096568696,-0.084134646,-0.20090584,0.0787868,0.09195196,-0.015077945,-0.14393876,0.06939472,0.04576462,-0.0056285593,-0.048021875,-0.14699495,-0.0060031824,-0.07492477,0.020761466,0.030476768,0.0022406983,0.07793911,0.14935759,0.17277321,0.12194833,-0.14114444,-0.11391568,0.019965574,-0.20352617,0.009499578,0.103158034,0.117923945,0.27256066,-0.06092189,0.1561857,-0.52478266,-0.12565671,0.17981368,0.22257385,-0.03628007,0.024164602,0.078206405,0.059508353,0.2603968,-0.023433479,0.14310728,-0.0025841058,0.011004338,-0.07013694,0.11938744,0.054727297,0.022328725,0.00868051,-0.02318925,0.07704114,-0.07873843,0.05649172,-0.02160943,0.009765456,0.18494925,-0.09161237,0.09702633,0.093089916,0.25884658,-0.2338553,0.118287906,0.025700979,-0.20264032,-0.045141045,0.09616999,-0.11613053,-0.0168886,-0.028580878,-0.010328227,0.08220671,0.012393899,0.159812,-0.10230889,-0.017676514,-0.05618635,0.18015367,-0.03547955,0.070883185,-0.053057842,0.13843946,-0.014417833,0.28699228,0.0921234,-0.00058342726,-0.0037735037,0.088462956,0.23745714,0.05455793,0.0027468125,0.14722757,0.059594385,-0.023803955,-0.06881746,0.00093988486,0.027405815,0.03013517,0.22790463,0.016909275,-0.110954344,0.14488886,0.106754564,-0.12941547,0.012473659,-0.03179871,0.07388065,-0.04937846,0.0709439,0.001439225,-0.031622507,-0.040431757,-0.0055243564,0.019579742,0.09008683,0.023316309,0.021724233,-0.101835385,0.027799075,0.11639462,0.22916003,-0.091599904,-0.1651062,0.19960447,-0.13008001,-0.074648865,-0.06371229,0.015624488,-0.12453608,0.18793216,-0.17796664,-0.013513678,-0.17867911,-0.11243319,0.022621395,0.070324786,-0.006290022,0.03400817,-0.061073557,-0.037518222,-0.16837406,0.04084696,-0.14364776,-0.085425325,-0.03538907,0.0413574,0.04118404,-0.030404728,0.2695158,0.024291709,0.09664191,-0.038841423,0.0119750425,0.056067128,-0.13259882,0.032881156,-1.3535113e-05,-0.012517155,0.06678645,0.06786088,0.09472624,-0.050211832,-0.12764765,0.0028429623,-0.10008762,-0.26520783,0.15775529,-0.07927445,0.0020262653,0.04523774,-0.10614663,-0.071176015,-0.13840882,-0.15314811,-0.09801574,-0.03278349,-0.00020110651,-0.091611825,-0.05605047,-0.15447728,0.15887456,-0.087522455,-0.11772008,-0.036285106,-0.06563736,-0.003470394,-0.19520453,-0.054422215,-0.053190306,0.06997798,0.077183686,0.06129791,0.023985798,0.117686965,0.063254245,0.09212653,-0.09628852,-0.18236709,0.013861843,-0.09645496,0.1417425,-0.15102725,-0.02493489,-0.010035189,0.10589319,-0.08797048,0.072451346,0.038767308,-0.42060018,0.17074238,-0.11547805,0.035844393,0.00656455,-0.071827896,0.08119935,-0.08973838,0.10510341,-0.16412379,-0.059505355,0.7133467,-0.05031167,-0.019597724,0.049120884,-0.010154645,-0.040770937,-0.09191307,-0.11082802,-0.02651057,0.12231236,-0.025181226,0.13597332,-0.0494752,-0.12857907,0.0517121,-0.018207742,-0.042945623,-0.11774444,0.1905118,-0.5391854,0.069063194,0.2677519,0.011692953,-0.017648991,-0.08414795,-0.11304981,-0.026017055,-0.056258205,-0.025644774,0.11464161,0.07862448,0.049346678,-0.036728136,-0.11239558,0.06265647,0.018080005,0.12079508,-0.07170022,-0.12556535,0.058443032,0.15821807,-0.096347444,-0.022267444,0.044755626,-0.64650196,0.13962267,0.0052502127,0.16674417,0.01666991,0.058049217,0.18044792,-0.077101804,-0.00074467453,0.028641876,-0.01959737,0.009076434,0.10616232,0.10936852,-0.14595859,0.04296321,-0.15411447,0.26658866,0.07518075,-0.0608394,-0.05950401,-0.17071997,-0.11968758,-0.11618755,0.12569544,-0.002186401,0.01984002,-0.093959644,-0.03542588,-0.18023174,0.08892514,-0.11802473,-0.10365288,-0.058551006,-0.069060415,0.27104074,0.08428949,-0.02581113,-0.12982076,-0.18838117,-0.023024248,0.113758646,-0.12680635,-0.006215951,-0.052284043,-0.16241972,0.19160564,0.16504343,-0.26573172,-0.05757885,0.005016038,0.1160848,-0.029718922,0.0816341,-0.070078656,-0.11956604,0.05277896,-0.016418302,-0.056229882,-0.2044284,0.056814082,-0.006451056,0.00068265875,-0.17110497,0.13134561,0.20997164,-0.017888922,0.058531657,0.083040506,-0.052319758,0.002936296,0.16864108,-0.28596032,-0.006461611,-0.031734236,-0.018562919,0.044369232,0.019767707,-0.05319098,-0.23036931,-0.17964312,-0.027685326,0.044576153,-0.09620037,0.024007585,0.012623382,-0.0426348,-0.31427115,-0.06786598,-0.041905615,0.15706022,-0.062354892,0.25224602,-0.023389809,0.09590134,-0.0013286206,0.029370349,-0.1668347,-0.01395881,0.01586873,-0.020562481,0.02846375,0.16734037,-0.20528987,0.039690744,0.13784023,-0.032348853,0.017293189,-0.02656374,-0.03134036,0.02022472,-0.3117612,0.03307062,0.059084684,0.4244618,-0.05576698,0.08549904,0.105200514,0.011374878,-0.052305304,-0.0889889,-0.045084905,-0.008001555,0.084379606,0.05832596,0.020539226,0.21018973,-0.051939763,0.071744114,-0.07652641,0.107258216,0.07656463,0.05722378,0.02803673,-0.06926375,0.108761154,0.11266462,0.11437789,0.028807234,0.17364399,-0.08654406,-0.14648701,0.19937444,0.013427455,-0.05652192,0.020634431,0.0434013,-0.23887482,0.060021643,-0.16664459,-0.01970319,-0.076677084,-0.0003405431,0.005564273,0.12548393,0.091179594,0.049059294,0.08358587,-0.03215577,-0.11160503,-0.10397758,0.06758475,-0.17733797,0.031468645,0.07989355,-0.04801089,0.052985694,-0.07915187,-0.14229189,-0.16480611,-0.10576976,-0.15657482,-0.06721099,-0.13794705,0.030028762,-0.13376991,0.07707869,-0.17360464,-0.14179792,-0.03542608,-0.13522424,0.0156241115,0.14652693,-0.00017464683,-0.035045184,-0.0910021,-0.02961275,-0.0052327956,-0.1140512,0.11190452,-0.079401396,-0.060157962,0.06772433,0.07927542,-0.1394384,-0.17324303,0.15074275,-0.39898437,-0.07732007,0.0053058336,-0.106169194,0.055113655,0.031332273,0.06277528,-0.21668795,-0.023047738,0.25334853,0.12250416,0.046726592,0.18271042,0.02534854,-0.028587129,-0.27136567,0.058302797,-0.0625827,-0.105013855,-0.2332761,-0.39284652,-0.096059784,-0.16847782,0.029933708,-0.21571763,-0.059380505,0.03199091,0.18338998,0.15541264,0.00416612,0.045473725,-0.058359463,-0.011491114,-0.16723214,0.034547176,0.09950732,0.025288144,-0.06683303,0.076993145,-0.029880589,-0.0456245,0.12537134,0.16447762,-0.058313385,-0.11789638,0.15032662,0.057273965,0.084429406,0.11540106,0.059309587,-0.055523742,-0.17374413,0.24457915,-0.15199299,-0.12888576,-0.18246627,0.047204643,0.07800363,-0.08695449,0.01438723,-0.04349094,-0.036689803,-0.013523279,-0.10250178,0.19652309,-0.07728431,0.044178985,0.16077462,-0.009257955,-0.14454031,-0.036927037,0.005411812,0.060526926,-0.047105853,-0.07456503,-0.08975361,0.08096743,-0.041404992,0.053637974,-0.08094676,0.11887031,-0.06356907,0.030024158,-0.16458042,0.017075688,0.015421868,0.1553135,-0.12019483,-0.022848105,0.09139519,0.14504947,-0.07609488,0.054391686,0.10042975,0.1595757,0.019260831,0.047171146,0.098464385,-0.25579223,0.0025130073,0.068447195,0.02495042,-0.17748223,0.05295881,-0.03495809,-0.1008718,-0.1202306,-0.14045885,0.1922024,0.26782703,0.19114451,-0.25790545,-0.15503246,-0.22043154,0.08639971,0.07363437,0.032734167,0.0061443155,-0.032709155,0.11197394,-0.107245855,-0.3543193,-0.014994129,0.02348401,0.086121075,0.08207506,-0.18573998,-0.10817962,0.073480055,0.09424211,0.13185583,0.01233881,0.12617697,0.06877564,-0.018820575,-0.03581427,-0.027177421,0.049368706,-0.12964974,-0.06729909,0.037378717,0.0092326645,0.09165543,0.18471535,0.14462182,0.034398373,0.012432126,0.08524741,-0.024870468,-0.03214097,-0.0408936,-0.03307572,-0.10804017,-0.1284439,0.06155133,-0.026214918,0.02140712,-0.24957135,-0.0085786525,0.030065995,0.032057658,0.08394249,-0.08602827,0.122658946,0.08208486,-0.06514113,-0.00565024,0.08879264,0.0041132485,0.08434166,-0.10670001,0.0071573784,0.09358785,-0.21388036,-0.08104733,-0.1126243,0.12579308,-0.2137617,0.010590898,0.04428367,-0.016315594,0.065786056,0.089488484,-0.0031379035,0.1837508,0.02542593,0.12351293,-0.08518417,0.11208815,0.057726573,-0.19206233,-0.09933906,0.03730545,0.07853372,-0.018817171,0.03169035,0.07994161,-0.09531396,-0.03102748,0.266418,-0.1274503,0.3627501,0.044473063,-0.02443644,0.04220957,-0.008205382,-0.025754575,-0.08320779,0.047313422,0.09525386,-0.11595374,0.12450243,0.006831306,-0.04479826,0.043101482,-0.009929371,-0.022066403,-0.2006054,0.01809588,0.09432989,0.19445802,0.037267655,-0.16654441,0.04365665,0.038218014,-0.06522857,0.09158555,-0.04312865,0.14480501,0.25987944,-0.0963797,0.1316673,0.26029703,0.009344309,-0.09604871,-0.101160325,0.017061535,0.054328863,-0.13680352,-0.2518884,0.14134023,-0.085471235,0.2198719,0.13148187,-0.057816014,0.061043207,-0.02233022,-0.12058249,0.06492596,0.15376663,-0.09885736,-0.24791954,0.06517064,-0.043886915,0.042344086,-0.00237,-0.012903565,0.09840161,-0.072180584,-0.10101176,0.04518615,0.006882739,0.16802353,0.12396725,0.010243787,0.093039885,0.11182902,0.07746714,0.12234283,0.051660053,0.065565325,0.19099362,-0.025095502,-0.0952311,0.019570999,-0.12893803,0.0010402513,0.022542201,0.18635388,-0.1045061,-0.050528098,0.13142467,0.09593064,0.28134808,0.013707304,-0.14471954,-0.08519677,-0.05814971,-0.034945227,-0.0086164195,-0.08882155,-0.08231391,0.19673555,-0.1246151,-0.039171502,0.09844936,-0.006920723,-0.13349852,-0.11148367,0.02089036,-0.17383483,-0.08653237,-0.07867162,0.010292947,0.0772427,0.12349951,0.011191181,-0.09331121,-0.011122069,-0.06400034,0.009588641,-0.11385989,0.07431796,0.03338867,0.059282377,0.08845372,0.011112759,0.041289713,-0.24102008,-0.008714184,-0.091100305,-0.10005712,-0.094052784,0.010454417,-0.1320186,0.056231998,-0.038919453,0.24373817,0.048554733,0.04899978,-0.06851952,-0.0005861636,0.22805862,-0.028317353,0.007263696,-0.10751398,-0.061885625,0.1192975,-0.011408931,0.039131615,0.06707443,0.019074678,0.04054237,-0.006302045,0.07586704,0.17414679,0.021406457,-0.09848227,-0.03449085,0.15413588,-0.03943506,-0.07535802,0.013663606,-0.16697639,0.03767196,-0.16478172,0.12907004,-0.0422737,-0.018664828,-0.1581492,-0.02352037,-0.06948873,-0.05192522,-0.113333166,0.018565044,-0.11743616,0.106902726,0.09798378,0.036082756,0.08878694,0.14933346,-0.094141364,-0.029679146,0.18852575,-0.08122941,0.07065668,-0.1001856,-0.056492206,0.032263912,0.1691706,0.9766314,0.018913098,0.010927515,0.14659658,0.070271894,-0.1232427,-0.1672691,0.05827556,0.08442364,0.14947128,-0.104295604,-0.09084383,0.112437464,-0.10889938,-0.10355313,-0.06258287,-0.16939835,0.4725864,-0.21472497,0.10173444,0.15989326,-0.072773434,0.24926065,-0.058633402,-0.01447453,-0.11262391,0.13045612,0.1967434,0.18336669,0.093393035,-0.0751784,-0.06748572,-0.20308417,-0.22902258,-0.012703047,-0.10747622,0.14650844,-0.0058649494,0.0004951352,0.09180001,0.044154566,0.18816346,0.015454755,-0.0522211,0.013069248,0.019758916,-0.056794263,-0.17979884,0.1368098,0.19332188,0.08969612,-0.074713476,0.17465058,0.2819246,0.12005917,-0.020797579,-0.0268559,-0.2138426,0.13948467,-0.2545952,-0.007701129,-0.0036203708,0.037151475,-0.009734405,0.1603377,-0.15472484,-0.07206409,0.101910956,-0.23292352,0.0019479619,0.15136655,-0.12571953,0.15477699,0.07282185,-0.064015806,0.13002928,0.039330427,0.029799607,0.1607245,-0.047758248,-0.05411182,0.060459998,-0.039604805,0.05001058,0.10635417,0.078487955,0.021169294,-0.030384252,0.0048814,0.06564319,-0.098927975,-0.09996368,0.23886289,0.21845402,-0.108647645,-0.019141385,0.059456155,0.011688844,-0.043594353,-0.041383166,0.064004116,0.0957874,0.14859171,-0.07376506,-0.034192856,0.022368135,-0.119007386,0.033094242,0.09926541,0.18354487,0.0021175547,0.05062422,-0.17533071,0.030693503,0.05166813,-0.22740747,-0.06314838,0.054439686,0.0053087273,-0.09821953,-0.057519417,-0.022629725,-0.00885751,-0.026676944,0.046875354,-0.029177416,0.10129926,-0.0956037,-0.10353562,0.08625,0.0061200457,-0.031684477,0.0072730407,-0.0083399145,-0.011468487,-0.02168536,-0.088366024,-0.08037408,0.0463435,-0.13122278,-0.050143495,-0.068569936
DNA_V3_coreceptor,-0.017473735,-0.03892636,0.07774345,0.033469573,-0.10229742,-0.05387381,-0.13657331,0.010867403,-0.09109884,-0.04471017,0.004936579,0.027061636,-0.0152446525,0.1256076,0.0036953283,0.19729307,-0.28171554,0.12285244,0.03622051,-0.5301961,-0.020938667,-0.028377736,-0.101841256,-0.039618116,-0.037995413,0.011157347,0.028488263,-0.1000508,-0.07401206,-0.05675777,-0.13398327,-0.1303249,0.14662644,-0.03064722,-0.03134526,0.09252245,0.01690097,-0.030302687,-0.0485954,-0.21943642,0.07855418,0.10210845,0.035042107,0.08832658,-0.07841056,-0.26073015,0.11354133,0.06367248,-0.024178648,-0.14785488,0.03750379,0.044779915,0.02604804,0.038399916,-0.09069616,-0.05412586,-0.063190795,0.042757977,0.021344524,0.0019906822,0.07033469,0.22387418,0.15551679,0.12732746,-0.15825377,-0.09606382,-0.02244767,-0.14422384,-0.024578193,0.14088362,0.12672,0.26305106,-0.04454551,0.09754664,-0.4137974,0.0017638758,0.16504781,0.19012116,-0.036170647,0.019047778,0.05396312,0.033131544,0.15076327,-0.06874381,0.1516532,-0.062996365,0.020693127,-0.103255846,0.079086676,0.030785676,0.020575684,-0.069013715,0.03507003,0.06865178,-0.14632182,0.082907975,-0.07260528,0.016143184,0.12289597,-0.11378122,0.05946995,0.0476015,0.2246878,-0.205411,0.18735792,-0.055592492,-0.1803773,-0.0017792358,0.09564064,-0.14145392,-0.0033584142,-0.006249584,-0.051393606,0.08709955,-0.018414846,0.1832447,-0.09525893,0.004619131,-0.04493056,0.18114275,-0.04470091,0.0039435406,-0.013726867,0.16758165,-0.03044527,0.25838855,-0.016369745,-0.040462818,-0.00053951534,0.10616331,0.1681785,0.033080485,-0.034134146,0.082495645,0.13502364,-0.08300288,-0.016514989,-0.018054582,-0.017688012,0.07806413,0.25494632,-0.09896491,-0.11516377,0.1681415,0.08992506,-0.11726979,0.21265636,-0.006199555,0.041061003,-0.04289687,0.17302842,0.0066725947,0.015729077,-0.10656743,0.030218778,0.075323395,0.13645265,0.08951896,0.05806399,-0.1288694,-0.007304191,0.11014127,0.2462667,-0.05727985,-0.21685056,0.055389177,-0.032943908,0.016099134,-0.027801406,-0.0070478925,-0.05288183,0.09688512,-0.27935886,-0.020123018,-0.15137234,-0.11270039,-0.008405587,0.010799033,-0.004032245,0.07831079,-0.041422963,-0.127916,-0.075896636,0.06786384,-0.13322881,-0.16241522,-0.06957921,0.048896533,0.046362646,-0.069899306,0.2807458,0.01584758,0.070016325,-0.09025276,0.045358825,-0.013809694,-0.09454117,0.10002413,-0.033855457,-0.035816386,-0.0041877218,0.027191317,0.10888294,-0.07842118,-0.09444463,-0.077521615,0.021694375,-0.30672097,0.14987344,0.012166701,0.01817434,0.062420696,-0.22222495,-0.036152817,-0.15491912,-0.052910052,0.05893915,-0.046282094,0.07156455,-0.12761532,-0.03106186,-0.066152655,0.14007235,-0.043356255,-0.070054136,0.023560265,-0.033798594,-0.03184735,-0.085253485,-0.07907276,-0.060098886,0.13777073,0.086207375,0.101337634,0.021758562,0.115178645,-0.0034938625,0.1701919,-0.08217133,-0.20669352,0.029539317,-0.117258,0.17556627,-0.23045902,-0.089927986,-0.047814146,0.04908187,-0.041294303,0.03626321,0.10362544,-0.4123508,0.12361664,-0.09142524,0.12808509,-0.045059647,-0.09663039,0.098940276,-0.077326804,0.064060524,-0.03424537,-0.11630179,1.415621,-0.036463395,-0.004283386,0.038074892,0.045025356,0.012880748,-0.11238746,-0.07357067,-0.051207077,0.11519678,-0.013482452,0.08546564,-0.05324501,-0.11313547,0.014079297,0.0311501,-0.06487955,-0.060618203,0.20159245,-0.59606355,0.07111098,0.3040714,0.07829789,0.060353003,-0.008066498,-0.061339375,-0.08663216,-0.16390117,-0.04009791,0.093921326,0.12023606,0.074146345,-0.016691204,-0.10500477,-0.009203533,-0.04161258,0.1596884,-0.06705228,-0.09242483,-0.013215174,0.07454523,-0.038173452,-0.019285422,0.035663012,-0.65693146,0.04700229,-0.087439775,0.13696067,0.027790552,0.06973595,0.254441,-0.1358262,-0.032343566,-0.047189366,-0.013315169,0.057804067,0.074197724,0.060626287,-0.10168374,0.0635949,-0.16587369,0.16719829,0.07056931,0.017801717,-0.037984766,-0.21134098,-0.15440601,-0.026787639,0.19354795,0.010927612,0.050869353,-0.03407182,0.017166525,-0.17874062,0.11291176,-0.07009648,0.035384156,0.0003083327,-0.1144837,0.21388178,0.02017463,0.07915261,-0.15175112,-0.21792176,-0.048859775,0.115485,-0.04483681,-0.059556063,-0.085475266,-0.20948817,0.17717189,0.17885454,-0.20505947,-0.02963761,0.029658165,0.10931166,-0.09362852,0.05565632,-0.041989103,-0.07441869,0.17128514,-0.021114029,-0.06601483,-0.18873166,0.07120936,-0.07244829,-0.10790352,-0.14969045,0.13398765,0.16647725,-0.053855665,0.07087883,0.21394058,0.009685101,0.028390218,0.15872577,-0.35152233,0.041070003,-0.006947169,-0.029300189,0.06308305,-0.05835644,-0.057893366,-0.07140603,-0.15251264,-0.12845202,0.096837975,-0.14582312,0.077305816,-0.0054931142,0.014232761,-0.13445187,-0.08759249,-0.005065978,0.11290328,-0.07458015,0.3540353,-0.018555215,0.05581178,0.062318612,0.11583087,-0.19106536,0.025159994,0.03156225,-0.06186227,-0.048987728,0.1950903,-0.07018925,0.030189963,0.12988964,0.012143191,0.11979592,0.0051512206,0.020519955,-0.062295508,-0.35740343,-0.009710915,-0.034209255,0.50171876,-0.07143625,0.17539105,0.16227753,0.019613761,-0.020227255,-0.10000162,-0.107162476,0.028242152,0.15230446,0.051845938,0.046681162,0.18522522,-0.05030883,0.13064568,-0.052774414,0.15556239,0.061570458,0.09967087,0.01828299,-0.084595114,0.14926386,0.12209318,0.06332873,0.046865616,0.17947008,-0.0668977,-0.24143116,0.2793178,0.012138898,-0.06354446,0.02833339,-0.051719714,-0.12542452,0.115382396,-0.2274734,0.02363534,-0.17160934,0.026999272,0.044337314,0.11892157,0.13129319,-0.027148936,0.028965514,-0.052289303,-0.104946956,-0.047645293,0.09102158,-0.070198886,0.104948714,0.068930514,-0.03164414,0.10299334,-0.07219447,-0.09361239,-0.18003616,-0.027036572,-0.17670746,-0.08367554,-0.12489605,0.055453636,-0.21582277,-0.029447094,-0.3303283,-0.11401704,-0.008648886,-0.27559087,-0.030547366,0.08763042,-0.042438988,0.003756734,-0.060862258,-0.058574133,0.01874837,-0.07728773,0.20465757,-0.21177235,-0.0021623967,0.086897634,-0.045744993,-0.17313647,-0.067798786,0.14620662,-0.2532967,-0.18588747,0.00081447006,-0.12711777,-0.047789607,0.11994357,0.033526823,-0.21895878,-0.044987287,0.21083046,0.07278791,0.054314937,0.15203215,-0.05153917,-0.027310632,-0.2847337,0.05054947,0.04140135,-0.10066192,-0.2072433,-0.35438976,-0.058675867,-0.15913287,0.060993686,-0.101875894,-0.06691817,0.011092487,0.25184026,0.21858792,-0.16062051,-0.0016842624,-0.0705046,0.03333558,-0.037434567,0.03680232,0.13665193,0.0044164597,-0.0704711,-0.022677343,-0.017509548,-0.08830809,-0.031390063,0.15776858,-0.09083933,-0.07628127,0.14106414,0.19240695,0.054484077,0.20032486,0.088539645,-0.11656692,-0.14962262,0.17227799,-0.2563928,-0.070496984,-0.1382911,0.0061887596,0.10214843,-0.13188785,-0.03721437,-0.07755657,-0.096111275,-0.018015958,0.016925033,0.13270845,-0.04381298,0.024951572,0.16618109,-0.028732214,-0.13915175,-0.013569289,0.149418,0.06900502,-0.0010550075,-0.07269444,-0.09290026,0.037255175,-0.12111875,0.033689845,-0.068175696,0.06519533,-0.09195613,0.057479065,-0.21529907,0.10661174,-0.00055580714,0.110962816,-0.029961923,0.0041755866,0.07362258,0.17589213,-0.025849,0.045386538,0.06880358,0.14225245,0.034153093,-0.2318521,0.09745629,-0.24863212,0.034165733,0.022660356,-0.00451088,-0.13384852,0.041878033,0.0070630223,-0.13175973,-0.13435362,-0.05885505,0.120821394,0.20871568,0.13042068,-0.1619309,-0.22604051,-0.18351911,0.08055389,0.050024465,-0.056602553,0.009278665,0.02609695,0.21056506,-0.18095289,-0.41553506,-0.04587908,-0.0068933996,0.09978609,0.06654263,-0.17736053,-0.10054594,0.09934194,0.08582776,0.024983393,0.05970931,0.13051426,0.037824057,-0.025157984,0.05485412,0.017033186,0.04849708,-0.10542264,0.004080518,0.024408557,0.047394298,0.06455384,0.22569698,0.19339697,0.047157977,-0.018926578,0.03700254,-0.052187424,-0.04959068,-0.018452719,-0.007568735,-0.056215968,-0.12426537,0.12220177,-0.086259454,0.048754383,-0.27312145,-0.016020028,0.05267967,0.0037770052,0.07938622,-0.04283624,0.16290627,0.12880298,-0.10997527,0.01804427,-0.11854627,-0.035674345,0.055635486,-0.09166101,-0.021979863,0.05210721,-0.0902155,-0.05994361,-0.060922306,0.2558989,-0.22503276,0.013700856,-0.05423827,0.036607765,0.11714087,0.12045464,-0.09032518,0.044708,0.04872083,0.06554407,-0.16744824,-0.019566666,0.08532764,-0.18586881,-0.12062296,0.039683692,0.095954455,-0.012862966,0.04957878,0.038620047,-0.13582623,-0.09201261,0.18746237,-0.066790834,0.4155471,0.0024386407,-0.08695408,-0.030944573,-0.07605855,-0.07112159,-0.09581167,0.082277246,0.039137963,-0.037261594,0.19848908,-0.011278433,-0.09099666,0.026860714,-0.04208415,-0.08237246,-0.17087525,0.14154536,0.12243849,0.23135822,0.0339748,-0.18162589,0.10480456,0.017408963,-0.11049339,0.056403477,-0.014449721,0.09382057,0.29157424,-0.065992385,0.16475664,0.1816374,0.015791133,-0.15618637,-0.062448308,0.11325865,-0.07296645,-0.11377699,-0.18626289,0.14130159,-0.13821182,0.24057426,0.024633894,-0.16592763,0.04259779,-0.11462873,-0.122507155,0.025777433,0.16170865,-0.045099173,-0.1768372,0.011644951,-0.0908579,0.05300073,0.03115058,-0.052276406,0.12887079,-0.03446137,-0.06633697,-0.0009844566,0.019483069,0.19796084,0.1425569,-0.060841594,0.1136692,0.16405551,0.07226397,0.17067595,0.0703544,0.077386305,0.1910957,-0.056649636,-0.13147573,-0.0075078174,-0.03198045,0.035580847,0.0028559251,0.056370806,-0.06264108,-0.060254134,0.09620601,0.047174018,0.2889574,0.07081723,-0.17744242,-0.049584772,-0.03849519,-0.07177781,0.083311774,-0.07822513,-0.16359262,0.08112925,-0.119858645,-0.020068748,0.08556722,0.03527887,-0.09897078,-0.115494095,0.06981819,-0.16810487,-0.11056865,-0.04925578,-0.059744723,-0.0031500058,0.08204347,-0.009441895,-0.10123827,0.0390116,-0.07304591,0.056538757,-0.084376335,0.0022237562,0.04464208,0.082766525,0.048767574,-0.023709085,0.07973291,-0.19674367,-0.034451637,-0.16950457,-0.1155399,-0.10188723,0.042179536,0.0068116137,0.089912206,0.016783979,0.18766662,-0.0039587603,0.029904453,-0.029303873,0.002626128,0.23818414,-0.067708835,-0.04409857,-0.17350468,-0.30358002,0.10568165,0.013168312,0.041648958,0.029616654,0.04999771,0.057164866,-0.060533937,0.030700939,0.18421969,0.053172063,-0.13048114,-0.06967228,0.15821567,0.02757049,-0.14281842,0.010752722,-0.14543912,0.09817691,-0.079286516,0.13778803,-0.019549543,0.009301823,-0.15078612,-0.08590757,-0.04099611,-0.080333434,-0.13923065,0.06775305,-0.062473033,0.12928653,0.12745759,0.046485715,0.08626032,0.1372704,0.0610361,-0.027169853,0.1989585,-0.098286316,0.034856763,-0.087370224,-0.08735132,0.05546017,0.1167604,0.58317584,0.024916634,-0.066432334,0.20489141,0.12933035,-0.07025179,-0.09273138,0.008106886,-0.03250293,0.23123594,-0.026496654,-0.14573875,0.12774324,-0.1560347,-0.13122483,-0.05226003,-0.13728492,0.6546132,-0.24748874,0.13258775,0.27377495,0.022243071,0.16464958,-0.013814912,0.007627847,-0.090449885,0.078671,0.10998055,0.21600415,0.08920702,-0.10851688,-0.06740026,-0.124347225,-0.14779381,0.046836272,-0.08563285,0.1664171,-0.02338628,-0.044429027,0.14005509,0.0142868,0.17635326,0.056488965,0.0175404,0.045380674,0.04094362,-0.070166916,-0.1272515,0.13758716,0.13911286,0.14296848,-0.07091284,0.18517692,0.034992646,0.15648393,0.044579715,-0.0017851064,-0.24026978,0.116405055,-0.1960956,-0.07192671,0.015700344,-0.0061921347,-0.09775848,0.15745862,-0.24277833,-0.07186663,0.14871885,-0.20608044,0.06231786,0.11837019,-0.12070862,0.13620566,0.09004866,0.011675026,0.14048384,0.012727591,0.07691338,0.08136725,-0.13113627,0.017512003,0.07450386,-0.06223245,0.10789402,0.08035664,0.12720259,0.022522535,-0.06785858,0.059933152,0.06628062,-0.03137715,-0.050525617,0.2739168,0.21094123,-0.275843,0.0023137422,0.0067842477,0.027923865,0.029150961,-0.018773846,0.12790452,0.13561143,0.1741613,-0.08892025,0.0609838,-0.06741991,-0.14923452,0.035515025,0.04134776,0.26784056,0.010746718,-0.0059432164,-0.12863459,-0.020955922,0.021938058,-0.14748065,-0.1120763,0.0760186,-0.008745459,-0.092909254,-0.07141042,0.02206618,-0.07026522,-0.008778151,0.008319689,0.031176355,0.13129042,-0.19817548,-0.10715553,0.09998206,-0.0025201675,0.067687765,0.02798924,0.021297907,-0.07041289,-0.04466611,-0.18036135,-0.08185647,0.06713341,-0.11520132,-0.120124914,-0.042133454
DNA_long,0.017592765,-0.08357759,0.038425047,0.05189635,-0.12630841,-0.047493648,-0.08829352,-0.042885445,-0.07074739,0.026033897,0.019279517,0.09907511,-0.10666019,0.16257374,0.05335561,0.16983993,-0.26942483,0.008991119,0.025434192,-0.8272562,0.004319765,0.07313566,-0.2175667,0.05700226,-0.0052592685,0.063026115,-0.09957883,-0.09980243,-0.05465698,-0.0067003407,-0.09315656,-0.14806515,0.11770734,0.033742163,0.04542593,0.14572164,-0.4101731,-0.12724054,-0.07323232,-0.06079991,0.09663031,0.046661187,0.03948905,0.15782501,-0.123725876,-0.19522253,0.07813275,0.09342378,0.012244472,-0.10398259,0.045286443,0.079427764,0.01515597,-0.06736529,-0.0707246,-0.034658458,0.038004525,0.049146727,0.07783818,-0.1164115,-0.04833485,0.23624712,0.2666731,0.04933997,-0.19306405,-0.11948581,0.06423766,-0.13671334,-0.0063532153,0.13789281,0.11376814,0.2941565,-0.0806585,0.0015646793,-0.3216403,-0.06718212,0.11993669,0.20836167,0.006606834,-0.1530557,0.024827756,-0.04413481,0.026071373,-0.037752844,0.17623505,-0.10722069,0.08662098,-0.051108204,0.19259225,-0.041635606,0.04896353,0.005021152,0.08516983,0.09375758,-0.09691498,0.05300447,-0.07748274,-0.042704314,0.09400014,-0.06278177,0.005640179,0.018677313,0.16616575,-0.08983318,0.079229385,-0.14271824,-0.23854388,-0.005547551,0.153405,-0.16333869,0.034497548,-0.008685405,-0.06616957,-0.017860187,-0.059366398,0.18014278,-0.07612618,0.029982535,-0.11749324,0.19210495,0.04067061,0.060915805,-0.053829823,0.15754387,0.021700861,0.2284955,0.2261534,0.06651465,-0.016728189,0.10801203,0.15322098,0.075205185,-0.023210641,0.17511235,0.09156492,-0.028612413,0.054395013,0.059904195,-0.015204957,-0.042190183,0.22596985,-0.05559684,-0.13109542,0.1502508,0.026975239,0.01739776,0.1409663,-0.010231409,0.023725469,-0.084421515,0.1811601,-0.0694802,0.0014427305,-0.08616586,-0.023010178,-0.004058744,0.04883084,0.21911782,0.09171607,-0.104818195,0.07333844,-0.025978383,0.39410925,-0.11626224,-0.19219635,0.17224286,0.021212114,-0.07320984,-0.08302925,0.02937946,-0.11388555,0.10449245,-0.08175971,0.020691652,-0.18369463,-0.05883693,0.057989176,0.014102618,-0.0042935326,0.077459,-0.019348197,-0.07083301,0.08973262,-0.061166,-0.12275879,-0.045786303,-0.12126074,0.008556157,-0.047036126,0.30796632,0.11498218,-0.017403092,0.040429655,-0.17346656,0.023858937,-0.05767039,-0.16257367,0.11866818,-0.09693662,0.043007,0.16095543,-0.012570816,0.029940974,-0.021336969,-0.0518183,-0.04610562,-0.14323406,-0.14664206,0.27045232,-0.035259426,0.052457187,0.13419138,-0.11009907,0.009566139,-0.0835319,-0.16831794,0.0022842023,-0.046566613,0.06767595,-0.040876,-0.028462086,-0.056544174,0.21966492,-0.11166247,-0.18687686,0.0038570433,-0.13881677,0.04868548,-0.16771907,-0.097544685,-0.04594713,0.21786524,0.04158989,0.09030466,0.021315997,0.10997514,-0.011088446,0.08814775,-0.07625301,-0.025065636,0.014937202,-0.17622146,0.0812575,-0.087829955,-0.02684588,-0.04247733,0.025346829,0.032611094,0.07957254,0.1793875,-0.31485963,0.18254302,-0.17453954,0.05867324,-0.022372307,0.02046226,-0.01390835,-0.15762024,0.19583839,-0.20166233,0.032435976,1.1181551,-0.059614282,-0.04512066,0.08761801,0.14927252,0.052516893,-0.0987455,-0.13817951,-0.09340628,0.049568817,-0.02762526,0.14294994,0.016431663,-0.14433311,0.059607904,0.02681495,-0.047311343,-0.12053753,0.116343655,-0.45455623,0.0652356,0.33150053,-0.03843311,0.0057751206,-0.0474632,0.10897032,-0.05391363,-0.10092122,0.034338173,0.049061578,0.11285062,0.047328494,-0.034516707,-0.08314669,0.021936536,-0.03432188,0.026241116,-0.093967,-0.12377556,0.061461546,0.07977956,-0.15185422,0.038851485,0.16727418,-0.53446317,0.064762026,-0.029479904,0.14528336,0.011483196,0.07402208,0.18963133,-0.12882231,-0.015709173,-0.019978277,-0.0046190172,0.071336076,0.11501416,0.14264685,-0.12574132,0.013161885,-0.06487369,0.16012156,0.103281125,-0.09165175,-0.08435141,-0.15824637,-0.13018276,-0.104108505,0.114067025,-0.0038907174,0.13920929,-0.12042024,-0.036919028,-0.0634129,0.0565165,-0.037851144,0.113582596,-0.026433067,-0.14455543,0.22165695,0.005631424,-0.09259485,-0.15668958,-0.049931053,-0.009442476,0.059777725,-0.10698905,-0.079044394,0.005565607,-0.13904458,0.15218225,0.23793867,-0.21827962,0.0034318655,-0.08322971,0.11519683,0.053597696,0.011404461,-0.039015707,-0.102983244,0.07429999,-0.029785292,-0.057041515,-0.18627894,0.075784445,-0.054499447,-0.10057302,-0.27191687,0.06599257,0.09374639,-0.04215055,-0.10597669,0.15776448,-0.056798343,-0.06417761,0.120860614,-0.26322207,0.018094847,-0.08081042,-0.0038913945,-0.117013186,-0.063979864,-0.124531984,-0.0922689,-0.09068137,-0.014312565,0.057876308,-0.17441848,0.1097322,0.032002293,-0.02824148,-0.009128575,-0.12594518,-0.0066282083,0.14033374,-0.08342688,0.2025407,-0.116234325,0.13958094,-0.033347826,0.13517135,-0.18866521,-0.017859777,0.06803406,0.049493082,-0.09299549,0.1899754,-0.06916838,0.11204353,0.13801153,0.028670931,0.12388383,0.060060665,-0.13869214,0.04721538,-0.20347148,0.07628905,0.00013128499,0.5049043,-0.05312674,0.02289527,0.2304594,0.18352865,-0.03678549,-0.07958568,0.026655288,-0.013001718,0.17308916,0.0068437876,0.034655012,0.07025262,-0.023507671,0.1716569,-0.04099171,0.077509195,0.07138408,0.056692556,0.053311966,-0.099944785,0.11460445,0.121336326,0.02035537,0.049840793,0.17947128,-0.1112189,-0.16112319,0.2155675,-0.010021912,-0.04926117,0.094093814,-0.11502923,-0.21738285,-0.016882164,-0.10470918,0.068632714,-0.09975336,-0.05761411,0.076782,0.106615864,0.098698854,-0.060529623,0.050401103,-0.12063823,-0.1625799,0.10553761,0.0043206657,-0.13035588,0.003420269,0.031838544,-0.11340978,-0.004694669,-0.16201346,-0.093232,-0.13483009,-0.076524034,-0.18716379,-0.07613518,-0.10315485,0.046278417,-0.056460217,-0.095189676,-0.115875274,-0.16485433,0.015132639,-0.1005348,-0.08269047,0.06592246,-0.11509754,-0.048153847,-0.10731978,-0.11822393,0.016574712,-0.054691173,0.28438637,-0.16772509,0.025074711,0.096269496,0.079941906,-0.08986314,-0.032034922,0.18415104,-0.26993817,-0.178524,0.03567632,-0.11559613,-0.047348518,0.06380428,0.13527267,-0.067414306,0.05240514,0.19913997,0.09937147,0.038720913,0.15721723,-0.027195865,-0.09558192,-0.2383714,-0.037036113,-0.044758108,-0.14316964,-0.1466742,-0.3282873,-0.043670185,-0.2245037,0.025521457,-0.06588627,-0.0011850125,-0.019976845,0.18144406,0.18502048,-0.05432451,-0.004693995,-0.030261545,-0.048614785,-0.14594397,-0.026959509,0.050527565,0.10631469,-0.003919609,0.05564224,-0.044961225,-0.014928916,0.08079061,0.19132048,-0.07523898,-0.068579555,0.16521668,0.17377159,0.066568024,0.19339919,0.11917071,-0.030910252,-0.21513303,0.09522577,-0.079548165,-0.07493481,-0.19242044,-0.029428171,0.057091467,-0.13789053,-0.08863439,-0.014805449,-0.1039127,0.0064592524,-0.063118674,0.16101381,-0.025418596,0.110143304,0.18773292,-0.026544716,-0.14933565,-0.08430113,-0.0054977294,0.08429298,-0.06555874,-0.12473248,-0.056865662,0.019932134,-0.19105627,0.0013694328,-0.117326744,0.09775501,-0.17569289,0.09903054,-0.19532073,0.14654188,0.079341926,-0.023175204,0.10731379,-0.078177325,0.072879374,0.23059572,-0.04425965,0.045172326,0.087835975,0.14541164,-0.06199612,0.18944858,0.15829365,-0.3059428,0.11795053,-0.0850982,0.06767793,-0.07592667,-0.011705701,0.007298083,-0.023684032,-0.12497936,0.0028684356,0.29756308,0.09406552,0.201768,-0.08981121,-0.12656021,-0.23184893,-0.009608397,0.09682163,-0.0739318,-0.0013471313,-0.043421168,0.08377624,-0.07047641,-0.13414484,0.0043994575,-0.009924901,0.02099007,0.114908166,-0.09551509,-0.0617105,0.1629305,0.013587459,0.10568154,-0.058116943,0.12755737,-0.036694888,-0.028687242,0.015853701,0.038516413,-0.048708517,-0.097821295,0.03731283,0.064906344,0.00046976787,0.053076647,0.18802872,0.16965403,-0.02152895,-0.02985153,0.05611,-0.036332667,0.17543371,0.05408735,-0.040770087,-0.08942611,-0.0871837,0.19265836,0.055254478,-0.018006558,-0.16222025,0.048597522,0.08604001,0.03876046,0.12623627,-0.12854397,0.1693105,0.14312999,-0.04675102,0.027958388,0.12490759,-0.09041525,0.08653812,0.022459872,-0.104315676,0.06461081,0.0102209225,0.024484657,-0.055628326,0.2654368,-0.21154019,-0.09263423,0.015109818,0.15569358,0.095951945,0.11764737,-0.111047484,0.25584605,-0.07360529,-0.050135918,-0.036783256,0.03777468,0.04080213,-0.045221273,-0.13534027,0.07442389,0.082408786,0.010056452,-0.058391888,-0.03673389,-0.07022324,4.5661553e-05,0.22107185,-0.095696054,0.38023925,-0.05505907,0.0932943,-0.016075868,-0.13366255,-0.12486576,-0.0031023705,0.037240684,0.028233388,-0.00851843,0.097949795,0.016898777,-0.02240959,0.14360924,0.004373564,-0.012693711,-0.0852576,0.10757483,0.038847666,0.14094211,0.05914197,-0.26803434,0.026221985,0.014936949,-0.031993236,0.10904369,0.0034887446,0.17251323,0.27805394,-0.1691252,0.13078652,0.20979507,0.021214234,-0.080274366,-0.17125696,-0.0038727634,0.011688211,-0.025806684,-0.29983568,0.10297962,-0.24512774,0.11347777,-0.029095365,-0.2802022,-0.02751907,-0.07212873,-0.11766061,0.048407827,0.07898421,0.032247607,-0.30528995,0.046016295,-0.13299131,0.06617558,0.045524128,-0.05962698,0.16569759,-0.16342807,-0.18710573,0.051095977,0.05955146,0.12705873,-0.07241045,-0.025372865,0.11512299,0.20488176,0.044494234,0.09451356,-0.060542952,-0.0386518,0.16163032,0.0033568633,-0.15484035,-0.059100743,-0.053397346,0.102399625,-0.031814978,0.03842824,-0.09868415,-0.13477616,0.11375702,0.006037618,0.21848822,-0.020173997,-0.08193353,-0.08846454,-0.13153356,-0.0613046,0.057493467,-0.10082067,-0.1812406,0.15405403,-0.09315182,0.092994325,-0.065040536,0.04095347,-0.018904505,-0.23367277,0.02749538,-0.16836065,-0.08527497,-0.00747907,0.09600181,0.07070144,0.1845837,0.047448188,-0.049381625,-0.030092806,-0.08482246,0.021259177,-0.18187095,-0.025471238,0.003940911,0.10787132,0.02074127,-0.0011459566,0.057363216,-0.2528362,-0.030226931,-0.024164231,-0.07944348,-0.07022714,-0.0016705011,-0.013289331,0.008048566,-0.024567993,0.21296044,0.027472295,0.13624549,-0.085876666,-0.050937254,0.19675654,-0.010335466,-0.046859603,-0.05021536,-0.08760463,0.08300888,0.0495223,0.022306338,0.029214542,0.02600185,-0.03966113,-0.08231167,0.10713253,0.16642144,0.08664613,-0.1568266,-0.037088647,0.24046881,0.032243077,-0.18568778,-0.033363592,-0.1830158,0.055445917,-0.112614475,0.080880694,-0.06845968,-0.12110751,-0.10794921,-0.075367115,-0.00564264,-0.013087232,-0.04883687,-0.07852605,-0.034648057,0.07781438,0.10972817,0.03466514,-0.014124692,0.100240305,-0.007206625,-0.053446285,0.19836164,-0.02717585,0.01198807,-0.10135548,-0.057854936,0.028908782,0.2091019,0.6772583,0.057792358,-0.06526783,0.09297206,0.219925,-0.08462944,-0.052646216,-0.007076308,0.14857584,0.13977192,0.03913565,-0.09732781,0.14271218,-0.013497534,-0.14778036,-0.005536884,-0.06019617,0.8242688,-0.19347611,0.1300204,0.13841812,0.036966342,0.14298226,-0.020712402,0.0021787088,-0.015602782,0.045577,0.027529545,0.0296557,0.027111657,-0.05232083,-0.10021842,-0.15056932,-0.22686972,0.03738562,-0.19579938,0.0739468,-0.024865298,-0.03503963,0.101994395,-0.10033049,0.026855743,-0.021327367,0.04946406,0.10690974,0.04097615,0.013517361,-0.23686856,0.06257365,0.23067641,0.19783105,-0.01061179,0.18576114,0.25669566,-0.0010776281,0.05299737,0.03306027,-0.18815841,0.020821959,-0.21099742,-0.002001287,-0.13060004,0.12797943,-0.072854295,0.23181348,-0.10737333,-0.057164278,-0.0033931984,-0.016770277,0.0053167455,-0.004015624,-0.060213935,0.11793044,-0.0948163,-0.011117577,0.20527925,0.015197898,0.05159749,0.08136749,-0.013056892,-0.030856218,0.037704878,-0.028107671,0.12589298,0.12756075,0.09444322,-0.024313163,0.007551704,-0.010629213,0.018291235,-0.0018384435,-0.1081462,0.20287322,0.16825405,-0.17178337,-0.06743234,-0.077401936,-0.10524269,-0.0138228,0.009355258,-0.0059452974,0.22366698,0.15102223,-0.14185433,-0.018032564,-0.076943256,-0.07667005,-0.056181617,0.030888706,0.083768405,0.0961016,-0.001821922,-0.08413322,0.035809252,0.021828042,-0.1030445,-0.05744224,0.1471863,0.038636755,0.009182421,0.044672295,-0.056181684,-0.007862192,-0.06562916,-0.06810439,-0.039146855,0.13277696,-0.14474711,-0.17894973,0.046767604,0.024230387,0.0423304,0.00028961277,0.015592676,-0.04601095,-0.07481703,-0.109605126,-0.14574638,0.08167221,-0.22093223,-0.13570577,-0.117964335
DNA_invalid_chars,0.04099849,-0.0771363,0.04001207,0.018655328,-0.11023878,-0.030388676,-0.19321392,-0.036600333,-0.043699503,0.007006007,-0.007653964,0.065140344,0.049777035,0.13056055,-0.019824786,0.15816344,-0.3136215,0.10663346,0.08959587,-0.69087183,0.0046266285,-0.06319245,-0.110278316,-0.01160506,-0.013881577,0.073659256,-0.019383043,-0.091489434,-0.10052503,-0.026083183,-0.08844475,-0.12682164,0.17963804,0.037037656,-0.005359549,-0.016674915,-0.19968034,-0.074508846,-0.049998026,-0.12882848,0.06082054,0.114193186,0.05748767,0.08968609,-0.034327373,-0.18999314,0.07322266,0.10029296,-0.036904383,-0.13458677,0.086513266,0.0442619,-0.011057839,-0.026760288,-0.12923934,0.008783408,-0.08078045,0.0087430775,0.04761877,0.010413004,0.0866854,0.18408108,0.19038391,0.101104125,-0.14441077,-0.105544746,0.01062582,-0.21312219,7.623871e-05,0.10026235,0.10406068,0.24969842,-0.043389663,0.14574361,-0.515628,-0.09618889,0.18490979,0.1936411,-0.044032592,0.019361382,0.068910874,0.04159559,0.27019328,-0.033658117,0.17760995,0.021320757,-0.00024753626,-0.08042309,0.09785676,0.058527276,0.019296944,0.012413375,-0.020933783,0.089032724,-0.084665745,0.05912192,-0.01186407,0.021347733,0.18030037,-0.09424305,0.09909121,0.086854324,0.24301286,-0.22666949,0.12878738,0.038139362,-0.20029955,-0.04752894,0.110499345,-0.11234476,-0.008451834,-0.04322446,-0.0077957762,0.085589714,0.0198484,0.16610858,-0.08443306,-0.0032976326,-0.06571747,0.18772233,-0.06810299,0.07579871,-0.067397654,0.14728417,-0.040235303,0.26196668,0.090081364,-0.012233072,-0.00078214833,0.08082711,0.22892356,0.043192815,0.004210771,0.15504484,0.05584007,-0.02477614,-0.06544466,0.0014123615,0.015021048,0.011316872,0.23503271,-0.0025500413,-0.10997484,0.15667525,0.09506067,-0.10835675,0.029463492,-0.04121854,0.0489185,-0.061563704,0.07857226,-0.017533453,-0.028591363,-0.041041806,-0.0003641018,0.010793774,0.12061185,0.016062757,0.03843638,-0.09701783,0.0015031114,0.107488655,0.24974856,-0.11004924,-0.16930428,0.1648356,-0.11639995,-0.08163308,-0.049627326,0.030095069,-0.12553748,0.17489529,-0.16802688,0.0062701427,-0.20175922,-0.1063973,0.007929754,0.06006403,-0.0058282344,0.035007313,-0.068385735,-0.028120035,-0.17131725,0.033724133,-0.11878672,-0.09939844,-0.028626833,0.034247547,0.03288439,-0.08989999,0.26285145,0.03235315,0.10101868,-0.035962638,0.013597988,0.05316565,-0.12915838,0.046192635,0.009054821,0.018996768,0.061905526,0.08562695,0.11789987,-0.048856746,-0.11025534,0.010541355,-0.13530295,-0.26022807,0.16641192,-0.056481723,0.0069320337,0.056388155,-0.117332235,-0.06605284,-0.1434193,-0.11048368,-0.11572102,-0.056285206,0.0028999473,-0.080380976,-0.042675406,-0.13436274,0.1558331,-0.07856116,-0.09657302,-0.044626914,-0.07240685,-0.01970879,-0.17240591,-0.07112503,-0.02532614,0.08874848,0.09400719,0.069850996,0.018299444,0.120213844,0.06896169,0.07079948,-0.08566956,-0.17510892,0.034259204,-0.11020704,0.14272839,-0.16132085,-0.029540457,-0.017178694,0.09344905,-0.07389072,0.08414267,0.042848054,-0.3882981,0.17746855,-0.09662603,0.041181564,0.010005246,-0.06424441,0.085635975,-0.09096292,0.13365895,-0.12352355,-0.06770905,0.73256284,-0.0566464,-0.020134984,0.04311665,-0.037845902,-0.03932542,-0.08492675,-0.10624892,-0.017053595,0.12249796,-0.0080806045,0.14858626,-0.055238865,-0.14016217,0.05981225,-0.0035424212,-0.02864886,-0.10862801,0.18936498,-0.53063,0.069541216,0.27959523,-0.0057602655,-0.027255973,-0.09151652,-0.12391238,-0.028547155,-0.045209184,-0.03152528,0.10700423,0.08793556,0.080449335,-0.029956376,-0.10941676,0.074394,-0.00053111126,0.11686407,-0.06354866,-0.12090651,0.055501167,0.12610118,-0.12855665,-0.028053096,0.03493446,-0.60723966,0.10203456,0.017598255,0.16219123,0.036035545,0.066933386,0.18756297,-0.061735805,-0.008969004,0.016544871,-0.02086665,0.010401781,0.09723526,0.10634076,-0.15627395,0.0425129,-0.165849,0.27471074,0.081896015,-0.07162043,-0.06877403,-0.14769633,-0.14158098,-0.08920378,0.14795588,-0.003988555,0.0543336,-0.09799186,-0.017255107,-0.16891818,0.088527806,-0.11409365,-0.07004477,-0.07152288,-0.062212825,0.2859017,0.0899364,-0.021502279,-0.14432742,-0.17671451,0.0051557384,0.10064722,-0.13733247,-0.0062594665,-0.058449,-0.1496396,0.18645668,0.14743286,-0.2706565,-0.068228565,0.0135031855,0.12975898,-0.048671305,0.09287706,-0.05622617,-0.121586494,0.06860982,-0.015776709,-0.052220147,-0.20224702,0.0713486,-0.036386814,0.029871268,-0.18767744,0.14611503,0.19440036,-0.03986523,0.06224572,0.08289845,-0.07220298,-0.012433991,0.17005633,-0.29087344,-0.0023608976,-0.030393947,0.0018186548,0.030478854,0.014370059,-0.067067556,-0.23233166,-0.17624515,-0.019974247,0.05448444,-0.119644776,0.009999835,0.0102588935,-0.021702476,-0.2819436,-0.042479716,-0.06037015,0.15064721,-0.066273406,0.2540638,-0.0209539,0.09934548,-0.0062415055,0.027133629,-0.14976458,0.007051205,0.018876264,-0.027845021,0.03121346,0.16448687,-0.1975364,0.0617239,0.11694914,-0.04664018,0.020008143,-0.02082506,-0.018154185,0.023149772,-0.32645485,0.019653244,0.04553533,0.4123059,-0.043569885,0.09084629,0.09318099,0.0068473727,-0.05166336,-0.10093334,-0.042180184,-0.0035355582,0.097991236,0.066274546,0.0145444535,0.21712257,-0.048886422,0.074641325,-0.08216698,0.11380597,0.090637624,0.069178894,0.02279358,-0.07672206,0.12880506,0.10257527,0.112286255,0.026916599,0.18481034,-0.08484809,-0.14615992,0.18722162,0.022686386,-0.041319434,0.005621862,0.044257566,-0.21218698,0.069537416,-0.14887798,-0.011678173,-0.13426682,0.010742856,0.026529826,0.12076933,0.080961704,0.05456824,0.0714848,-0.021763118,-0.09362,-0.11893744,0.06592313,-0.15799934,0.046947144,0.06905097,-0.043597132,0.04210472,-0.07998933,-0.15120184,-0.18722424,-0.12494495,-0.15567987,-0.05398194,-0.13864946,0.03906533,-0.13536508,0.067019194,-0.14701511,-0.13711452,-0.03545009,-0.13459566,0.014722093,0.13475093,0.008478006,-0.04599302,-0.091322586,-0.03347154,-0.012889504,-0.10903392,0.14121273,-0.107880235,-0.056095954,0.08148364,0.08054597,-0.118480794,-0.19283769,0.14523405,-0.37284774,-0.07259904,-2.559476e-05,-0.103956446,0.052718204,0.045165617,0.053543318,-0.20486085,-0.03958525,0.24739031,0.14928873,0.052359145,0.19149679,0.031115212,-0.031090202,-0.27852,0.07424566,-0.036358275,-0.092841,-0.24753436,-0.37283608,-0.11037819,-0.16296422,0.028226065,-0.20787491,-0.08702544,0.018921403,0.16265765,0.17290378,-0.004315481,0.026700165,-0.085573316,0.00043547244,-0.16441108,0.024588224,0.09773288,0.021994252,-0.0763077,0.0639453,-0.009569915,-0.05699525,0.07666155,0.17305914,-0.04222778,-0.13522036,0.15648162,0.042224873,0.0986782,0.1226491,0.03415174,-0.05594665,-0.17254871,0.25353855,-0.14268658,-0.122969076,-0.20713927,0.046713147,0.092462175,-0.079133816,0.007611241,-0.046967033,-0.05726305,-0.01259627,-0.08307709,0.17658186,-0.07907826,0.0310681,0.1523922,-0.028621286,-0.14453383,-0.04069977,-0.0039236173,0.06874324,-0.06412507,-0.054492194,-0.08190719,0.08638746,-0.042953324,0.06319388,-0.08929213,0.10340296,-0.058684427,0.022935783,-0.15367109,0.011671604,0.01908614,0.14136247,-0.11246615,-0.0204317,0.08319627,0.14277749,-0.08215045,0.059068985,0.07520428,0.17291526,-0.0086269425,0.018495012,0.08603197,-0.24216624,-0.010306315,0.07635367,0.03834081,-0.16964641,0.05581226,-0.025678981,-0.10509644,-0.10015278,-0.1321699,0.19477817,0.26511317,0.1837653,-0.24642381,-0.16335888,-0.21406221,0.10226317,0.06774749,0.006154187,0.018512476,-0.03431624,0.09968457,-0.105079845,-0.39815322,-0.006032489,0.022251138,0.09324265,0.08862971,-0.19397143,-0.10525566,0.06289172,0.0748254,0.11974346,-0.01062665,0.12641951,0.07510605,-0.02170751,-0.058112487,-0.016882138,0.05573932,-0.12922603,-0.07433439,0.035725333,0.015645532,0.09383024,0.17633729,0.16107272,0.056099597,0.015348913,0.0742507,0.005641776,-0.017003577,-0.058989964,-0.034114834,-0.09414313,-0.12847753,0.04602226,-0.030729255,0.020800347,-0.23974974,0.004287588,0.06434423,0.04661475,0.07669329,-0.08282628,0.1456233,0.08518153,-0.075348035,-0.0062826118,0.063864425,0.01366809,0.073755436,-0.09782242,0.0015784565,0.11204282,-0.19506346,-0.08800074,-0.08335333,0.14078866,-0.21829537,0.013117022,0.03465091,-0.0075608944,0.05741323,0.0954736,0.0047255973,0.17679086,0.04268611,0.11012279,-0.08335393,0.11096973,0.0635571,-0.16998057,-0.104862064,0.04357277,0.08714816,-0.0084177535,0.024378395,0.09681315,-0.08827321,-0.04881033,0.2650174,-0.13081098,0.39430714,0.03248305,-0.021311406,0.039649673,0.0016793022,-0.017740114,-0.070689976,0.055127062,0.08237322,-0.11685069,0.12194339,-0.009314138,-0.058845058,0.043945067,-0.010686423,-0.032014303,-0.17715484,0.011196014,0.099397525,0.20754343,0.017735155,-0.16230285,0.030546766,0.026840353,-0.07578031,0.077858135,-0.03365177,0.16414204,0.25263217,-0.111328214,0.15000771,0.26383477,0.012213679,-0.107514,-0.09042536,0.0062689553,0.03777339,-0.13318612,-0.25045547,0.11788116,-0.069407016,0.20401499,0.11566008,-0.07828283,0.07112831,0.0031293863,-0.11615738,0.06288781,0.15375845,-0.088869296,-0.24223916,0.070106134,-0.032639842,0.055938452,0.00013891589,-0.007495092,0.07967781,-0.053940304,-0.09521447,0.029649122,0.0027253532,0.14963928,0.115119554,0.015530324,0.08926434,0.09162607,0.07118363,0.11474357,0.05092267,0.04817471,0.17730212,-0.020228269,-0.073878035,0.02844856,-0.12401214,-0.0012398089,0.020351129,0.15802868,-0.10660155,-0.0719274,0.12092868,0.08919895,0.28833848,0.019224599,-0.15524209,-0.06704735,-0.06963376,-0.03364975,-0.020758225,-0.07337402,-0.094270974,0.16888495,-0.11117837,-0.03512717,0.12603658,-0.00031668754,-0.1379417,-0.110027246,0.033422265,-0.17404978,-0.10673348,-0.124753416,0.022453174,0.081759095,0.114880815,0.011867975,-0.09108235,0.0074001024,-0.07551052,0.0114071695,-0.11079008,0.09921224,0.030844077,0.05016508,0.09622572,-0.005888152,0.0598292,-0.24172837,-0.02493754,-0.10212843,-0.08970428,-0.093169205,0.006869966,-0.08044576,0.075252965,-0.04547494,0.2275562,0.06467571,0.022371465,-0.060465205,-0.030401066,0.23029089,-0.0143716,0.014150906,-0.11601991,-0.08610343,0.12840591,0.0054983264,0.035223167,0.062385954,0.044574577,0.044023275,0.0010197095,0.096253745,0.15240978,0.012324212,-0.08779268,-0.046104204,0.15418172,-0.033185184,-0.07418465,0.0016355785,-0.16870058,0.015755033,-0.16041146,0.14386898,-0.06342245,-0.02350599,-0.14976664,-0.026295079,-0.06123352,-0.033585634,-0.1201354,0.008510019,-0.08987774,0.11972024,0.09214661,0.026691142,0.08391134,0.14182714,-0.09497463,-0.028956322,0.18812363,-0.070006736,0.06287883,-0.12267052,-0.036264736,0.05063694,0.15905385,0.92594165,0.011595974,0.014947398,0.1418151,0.021889651,-0.10146253,-0.15722483,0.04903721,0.06625528,0.15974131,-0.08245079,-0.1133213,0.11378324,-0.1208518,-0.12119071,-0.061239887,-0.15968908,0.4882955,-0.21171287,0.12854953,0.15871044,-0.08303949,0.21826957,-0.037223782,-0.00788385,-0.09643541,0.14424562,0.1848616,0.18771562,0.1075376,-0.07539042,-0.059031945,-0.20958397,-0.19589466,0.0025360174,-0.11448896,0.15172456,-0.028078686,0.0047515854,0.09408322,0.057113864,0.18668361,0.0032191237,-0.04814051,0.007356544,0.020610686,-0.066886745,-0.16262895,0.13733387,0.19725089,0.08107711,-0.08013055,0.17407082,0.28556558,0.09112925,-0.017248672,-0.060645968,-0.20765334,0.13232379,-0.2523303,-0.009427967,0.009260506,0.046983242,-0.022520602,0.14931998,-0.17394148,-0.07146756,0.109933175,-0.23214051,0.0023825988,0.15252492,-0.12361242,0.13692008,0.0791622,-0.06577321,0.12867175,0.025979124,0.010195256,0.14442374,-0.046246633,-0.04755781,0.05072638,-0.03215331,0.0699971,0.09862756,0.07162191,0.01450933,-0.03211143,0.005387983,0.04758404,-0.097551785,-0.09159395,0.2398763,0.22261497,-0.122801386,-0.029187439,0.05813947,0.029590463,-0.043998916,-0.04134674,0.0674241,0.10356426,0.15946132,-0.0715935,-0.042888664,0.034331195,-0.123987384,0.026226558,0.1176977,0.15283413,-0.015198486,0.06520873,-0.20204444,0.036441665,0.043086607,-0.21817067,-0.09374132,0.086893305,-0.007024758,-0.08909067,-0.055409595,-0.006679408,-0.03465925,-0.0285861,0.07633516,-0.008437595,0.0945241,-0.08495654,-0.09606345,0.085380696,0.015979523,-0.013567353,0.009353412,0.014129208,-0.026725044,-0.041191734,-0.067871384,-0.07571913,0.015155657,-0.12201773,-0.06634788,-0.08609777
